digraph Tree {
node [shape=box, style="filled, rounded", color="black", fontname=helvetica] ;
edge [fontname=helvetica] ;
0 [label="PetalLengthCm <= 4.572\ngini = 0.666\nsamples = 112\nvalue = [36, 40, 36]\nclass = p", fillcolor="#f5fef8"] ;
1 [label="PetalWidthCm <= 0.953\ngini = 0.507\nsamples = 65\nvalue = [36, 28, 1]\nclass = S", fillcolor="#f9e4d4"] ;
0 -> 1 [labeldistance=2.5, labelangle=45, headlabel="True"] ;
2 [label="gini = 0.0\nsamples = 36\nvalue = [36, 0, 0]\nclass = S", fillcolor="#e58139"] ;
1 -> 2 ;
3 [label="SepalWidthCm <= 2.406\ngini = 0.067\nsamples = 29\nvalue = [0, 28, 1]\nclass = p", fillcolor="#40e686"] ;
1 -> 3 ;
4 [label="gini = 0.0\nsamples = 7\nvalue = [0, 7, 0]\nclass = p", fillcolor="#39e581"] ;
3 -> 4 ;
5 [label="PetalWidthCm <= 1.162\ngini = 0.087\nsamples = 22\nvalue = [0, 21, 1]\nclass = p", fillcolor="#42e687"] ;
3 -> 5 ;
6 [label="gini = 0.0\nsamples = 3\nvalue = [0, 3, 0]\nclass = p", fillcolor="#39e581"] ;
5 -> 6 ;
7 [label="SepalLengthCm <= 5.391\ngini = 0.1\nsamples = 19\nvalue = [0, 18, 1]\nclass = p", fillcolor="#44e688"] ;
5 -> 7 ;
8 [label="SepalLengthCm <= 5.135\ngini = 0.5\nsamples = 2\nvalue = [0, 1, 1]\nclass = p", fillcolor="#ffffff"] ;
7 -> 8 ;
9 [label="gini = 0.0\nsamples = 1\nvalue = [0, 0, 1]\nclass = e", fillcolor="#8139e5"] ;
8 -> 9 ;
10 [label="gini = 0.0\nsamples = 1\nvalue = [0, 1, 0]\nclass = p", fillcolor="#39e581"] ;
8 -> 10 ;
11 [label="gini = 0.0\nsamples = 17\nvalue = [0, 17, 0]\nclass = p", fillcolor="#39e581"] ;
7 -> 11 ;
12 [label="SepalWidthCm <= 3.731\ngini = 0.38\nsamples = 47\nvalue = [0, 12, 35]\nclass = e", fillcolor="#ac7dee"] ;
0 -> 12 [labeldistance=2.5, labelangle=-45, headlabel="False"] ;
13 [label="PetalLengthCm <= 4.697\ngini = 0.391\nsamples = 45\nvalue = [0, 12, 33]\nclass = e", fillcolor="#af81ee"] ;
12 -> 13 ;
14 [label="gini = 0.0\nsamples = 3\nvalue = [0, 3, 0]\nclass = p", fillcolor="#39e581"] ;
13 -> 14 ;
15 [label="PetalWidthCm <= 1.811\ngini = 0.337\nsamples = 42\nvalue = [0, 9, 33]\nclass = e", fillcolor="#a36fec"] ;
13 -> 15 ;
16 [label="PetalWidthCm <= 1.621\ngini = 0.499\nsamples = 19\nvalue = [0, 9, 10]\nclass = e", fillcolor="#f2ebfc"] ;
15 -> 16 ;
17 [label="SepalLengthCm <= 6.56\ngini = 0.397\nsamples = 11\nvalue = [0, 8, 3]\nclass = p", fillcolor="#83efb0"] ;
16 -> 17 ;
18 [label="SepalWidthCm <= 3.069\ngini = 0.444\nsamples = 6\nvalue = [0, 4, 2]\nclass = p", fillcolor="#9cf2c0"] ;
17 -> 18 ;
19 [label="PetalLengthCm <= 5.089\ngini = 0.48\nsamples = 5\nvalue = [0, 3, 2]\nclass = p", fillcolor="#bdf6d5"] ;
18 -> 19 ;
20 [label="gini = 0.0\nsamples = 2\nvalue = [0, 2, 0]\nclass = p", fillcolor="#39e581"] ;
19 -> 20 ;
21 [label="SepalLengthCm <= 6.234\ngini = 0.444\nsamples = 3\nvalue = [0, 1, 2]\nclass = e", fillcolor="#c09cf2"] ;
19 -> 21 ;
22 [label="SepalWidthCm <= 2.673\ngini = 0.5\nsamples = 2\nvalue = [0, 1, 1]\nclass = p", fillcolor="#ffffff"] ;
21 -> 22 ;
23 [label="gini = 0.0\nsamples = 1\nvalue = [0, 0, 1]\nclass = e", fillcolor="#8139e5"] ;
22 -> 23 ;
24 [label="gini = 0.0\nsamples = 1\nvalue = [0, 1, 0]\nclass = p", fillcolor="#39e581"] ;
22 -> 24 ;
25 [label="gini = 0.0\nsamples = 1\nvalue = [0, 0, 1]\nclass = e", fillcolor="#8139e5"] ;
21 -> 25 ;
26 [label="gini = 0.0\nsamples = 1\nvalue = [0, 1, 0]\nclass = p", fillcolor="#39e581"] ;
18 -> 26 ;
27 [label="PetalLengthCm <= 5.631\ngini = 0.32\nsamples = 5\nvalue = [0, 4, 1]\nclass = p", fillcolor="#6aeca0"] ;
17 -> 27 ;
28 [label="gini = 0.0\nsamples = 4\nvalue = [0, 4, 0]\nclass = p", fillcolor="#39e581"] ;
27 -> 28 ;
29 [label="gini = 0.0\nsamples = 1\nvalue = [0, 0, 1]\nclass = e", fillcolor="#8139e5"] ;
27 -> 29 ;
30 [label="PetalLengthCm <= 6.217\ngini = 0.219\nsamples = 8\nvalue = [0, 1, 7]\nclass = e", fillcolor="#9355e9"] ;
16 -> 30 ;
31 [label="SepalWidthCm <= 2.531\ngini = 0.245\nsamples = 7\nvalue = [0, 1, 6]\nclass = e", fillcolor="#965ae9"] ;
30 -> 31 ;
32 [label="gini = 0.0\nsamples = 1\nvalue = [0, 0, 1]\nclass = e", fillcolor="#8139e5"] ;
31 -> 32 ;
33 [label="SepalLengthCm <= 6.024\ngini = 0.278\nsamples = 6\nvalue = [0, 1, 5]\nclass = e", fillcolor="#9a61ea"] ;
31 -> 33 ;
34 [label="SepalWidthCm <= 3.176\ngini = 0.5\nsamples = 2\nvalue = [0, 1, 1]\nclass = p", fillcolor="#ffffff"] ;
33 -> 34 ;
35 [label="gini = 0.0\nsamples = 1\nvalue = [0, 0, 1]\nclass = e", fillcolor="#8139e5"] ;
34 -> 35 ;
36 [label="gini = 0.0\nsamples = 1\nvalue = [0, 1, 0]\nclass = p", fillcolor="#39e581"] ;
34 -> 36 ;
37 [label="gini = 0.0\nsamples = 4\nvalue = [0, 0, 4]\nclass = e", fillcolor="#8139e5"] ;
33 -> 37 ;
38 [label="gini = 0.0\nsamples = 1\nvalue = [0, 0, 1]\nclass = e", fillcolor="#8139e5"] ;
30 -> 38 ;
39 [label="gini = 0.0\nsamples = 23\nvalue = [0, 0, 23]\nclass = e", fillcolor="#8139e5"] ;
15 -> 39 ;
40 [label="gini = 0.0\nsamples = 2\nvalue = [0, 0, 2]\nclass = e", fillcolor="#8139e5"] ;
12 -> 40 ;
}